digraph Tree {
node [shape=box, style="filled, rounded", color="black", fontname=helvetica] ;
edge [fontname=helvetica] ;
0 [label="sepal length (cm) <= 5.45\ngini = 0.65\nsamples = 94\nvalue = [42, 65, 43]\nclass = versicolor", fillcolor="#d6fae5"] ;
1 [label="petal width (cm) <= 0.75\ngini = 0.21\nsamples = 28\nvalue = [38, 4, 1]\nclass = setosa", fillcolor="#e89152"] ;
0 -> 1 [labeldistance=2.5, labelangle=45, headlabel="True"] ;
2 [label="gini = 0.0\nsamples = 23\nvalue = [38, 0, 0]\nclass = setosa", fillcolor="#e58139"] ;
1 -> 2 ;
3 [label="petal length (cm) <= 4.2\ngini = 0.32\nsamples = 5\nvalue = [0, 4, 1]\nclass = versicolor", fillcolor="#6aeca0"] ;
1 -> 3 ;
4 [label="gini = 0.0\nsamples = 4\nvalue = [0, 4, 0]\nclass = versicolor", fillcolor="#39e581"] ;
3 -> 4 ;
5 [label="gini = 0.0\nsamples = 1\nvalue = [0, 0, 1]\nclass = virginica", fillcolor="#8139e5"] ;
3 -> 5 ;
6 [label="petal width (cm) <= 1.75\ngini = 0.52\nsamples = 66\nvalue = [4, 61, 42]\nclass = versicolor", fillcolor="#c5f7da"] ;
0 -> 6 [labeldistance=2.5, labelangle=-45, headlabel="False"] ;
7 [label="sepal width (cm) <= 3.45\ngini = 0.25\nsamples = 40\nvalue = [4, 61, 6]\nclass = versicolor", fillcolor="#57e994"] ;
6 -> 7 ;
8 [label="petal length (cm) <= 5.05\ngini = 0.16\nsamples = 37\nvalue = [0, 61, 6]\nclass = versicolor", fillcolor="#4ce88d"] ;
7 -> 8 ;
9 [label="petal length (cm) <= 4.95\ngini = 0.03\nsamples = 33\nvalue = [0, 60, 1]\nclass = versicolor", fillcolor="#3ce583"] ;
8 -> 9 ;
10 [label="gini = 0.0\nsamples = 31\nvalue = [0, 58, 0]\nclass = versicolor", fillcolor="#39e581"] ;
9 -> 10 ;
11 [label="petal width (cm) <= 1.6\ngini = 0.44\nsamples = 2\nvalue = [0, 2, 1]\nclass = versicolor", fillcolor="#9cf2c0"] ;
9 -> 11 ;
12 [label="gini = 0.0\nsamples = 1\nvalue = [0, 0, 1]\nclass = virginica", fillcolor="#8139e5"] ;
11 -> 12 ;
13 [label="gini = 0.0\nsamples = 1\nvalue = [0, 2, 0]\nclass = versicolor", fillcolor="#39e581"] ;
11 -> 13 ;
14 [label="sepal length (cm) <= 6.05\ngini = 0.28\nsamples = 4\nvalue = [0, 1, 5]\nclass = virginica", fillcolor="#9a61ea"] ;
8 -> 14 ;
15 [label="gini = 0.0\nsamples = 1\nvalue = [0, 1, 0]\nclass = versicolor", fillcolor="#39e581"] ;
14 -> 15 ;
16 [label="gini = 0.0\nsamples = 3\nvalue = [0, 0, 5]\nclass = virginica", fillcolor="#8139e5"] ;
14 -> 16 ;
17 [label="gini = 0.0\nsamples = 3\nvalue = [4, 0, 0]\nclass = setosa", fillcolor="#e58139"] ;
7 -> 17 ;
18 [label="gini = 0.0\nsamples = 26\nvalue = [0, 0, 36]\nclass = virginica", fillcolor="#8139e5"] ;
6 -> 18 ;
}